100 10
0 0.018977 0.010509053 -0.022225676 0.0034579393 -0.005678123 0.019862896 -0.023753956 0.019376507 0.019022318 -0.0044115037
1 0.011273524 -0.008619374 0.015671337 -0.0048059374 -0.0069365613 0.012980634 0.013267731 -0.024218505 -0.01959967 0.018921511
2 0.022971174 0.002675334 -0.019104829 -0.012061084 -0.00090931915 -0.008557994 -0.009198343 -0.0036017895 -0.001231486 -0.018533027
3 0.0002655536 -0.013010815 -0.017606413 0.0035987403 0.01332183 0.0055962205 0.013965638 -0.011968858 -0.02253971 0.0058503095
4 0.007985314 0.008162441 -0.0004883595 0.0007905811 -0.021630377 -0.00907751 0.021596244 0.011518525 -0.0005752444 0.012936348
5 -0.009659595 0.0074007157 -0.014309055 -0.024377555 0.009980986 -0.022376506 0.013067385 0.0026576407 0.012277311 -0.0079614315
6 0.012780426 0.016281238 0.012769321 0.0030861683 0.0042478237 0.0020050555 0.009915354 -0.022446504 0.017954184 -0.013108889
7 0.00609326 0.01264835 0.012748444 0.021145778 -0.015615592 -0.002009917 -0.022696767 -0.015399331 -0.010323507 0.01374927
8 -0.017475467 0.019412791 -0.006819319 -0.022369301 -0.02149362 0.0029515885 -0.022851367 -0.0038450267 -0.02219685 0.012835382
9 -0.016660217 -0.011848337 0.022400586 -0.021073392 0.013211256 -0.00725618 -0.019236276 -0.0073022433 0.0036323331 -0.016485
10 -0.003942374 -0.0126576 -0.021965772 -0.003782805 -0.01626752 0.008981725 0.007275747 -0.021037828 -0.024028135 -0.016780872
11 0.017691998 -0.024101753 -0.0097209485 -0.020242397 -0.0031651743 -0.019061172 -0.019858632 -0.012799228 0.009165453 -0.022596816
12 -0.0076274276 0.022030065 -0.009388054 0.013778614 -0.00080211833 0.021121161 -0.0151298195 -0.009210974 0.008916149 0.013868568
13 -0.0022481568 0.001429027 -0.017524237 -0.014890581 -0.01030227 0.0012565888 -0.013827714 0.019444259 -0.00068592094 0.0064989347
14 0.017214203 0.0034629814 -0.007871609 0.009848224 -0.014220998 -0.017915498 0.006483985 -0.022953788 0.0052408334 -0.022077221
15 -0.024719497 0.014167594 -0.0189672 0.013144406 -0.024040615 -0.008118231 0.016494239 0.0022498108 0.019008355 -0.020338904
16 -0.0021750517 -0.012969327 -0.021118915 -0.016458496 0.02476515 0.012334703 0.010759579 -0.01990905 0.015990483 -0.0006838795
17 -0.023823876 0.015510974 -0.017757941 -0.013543901 0.02131216 0.0024965703 0.0034486465 -0.020596966 -0.024661485 -0.024937628
18 0.0018671248 -0.015960872 -0.023385933 0.0037349965 0.00078966655 -0.0068210755 0.02026345 -0.011525777 -0.020538446 -0.011073447
19 -0.01972481 -0.0153474985 0.022973178 -0.014562693 -0.014054987 0.023364177 -0.008289631 0.019593982 -0.007549951 -0.011288228
20 -0.013471303 0.0022515543 -0.0035374053 -0.014571029 0.011150742 0.01894063 -0.010385579 -0.0050630514 0.012041071 0.0059176777
21 -0.023409698 -0.017282134 -0.014027971 -0.020819461 0.007387044 0.02418788 0.017679332 0.01304041 -0.0051941816 0.006187111
22 0.01445266 -0.006120419 -0.012451318 0.008354517 0.010574536 0.015228884 0.020860685 -0.009218279 0.017720347 -0.017293815
23 0.008859666 -0.0071713887 0.0056887474 -0.008395007 0.0076950956 -0.019553747 -0.015840817 0.01246977 0.022424286 -0.024589991
24 0.0035179611 0.020075036 0.012508148 0.009522589 -0.023896305 -0.016996376 0.00028115138 -0.0003734231 -0.019167444 0.003725296
25 -0.016958524 0.011826245 0.017837198 -0.018062163 -0.0076744594 -0.008644801 -0.010596618 0.008728715 -0.004649872 0.015722768
26 0.020314844 0.0027483068 -0.020597491 -0.011053122 0.012508398 -0.010578394 0.0080935415 -0.010736987 -0.005450517 0.022773197
27 -0.01990527 -0.0208341 -0.003999481 -0.024952257 -0.016526202 -0.02176849 0.0074227173 -0.008752581 -0.01958086 0.015419664
28 -0.006096512 0.00476476 0.020138452 0.014184317 0.0031394698 -0.012871215 0.0056739002 -0.019033615 0.002836397 -0.016198728
29 0.014680764 0.0011834297 0.02260978 -0.011911693 0.0068826545 0.023083406 -0.019331047 0.019293802 0.01753114 0.020542985
30 -0.020259807 -0.02204283 -0.013576529 -0.006092172 -0.017569453 -0.009446901 -0.022349462 -0.014372337 0.021022452 -0.0031153448
31 -0.012962607 0.008098872 0.023631448 0.00048818626 -0.0016597956 0.015301542 0.024005642 -0.018460233 0.0064805057 -1.4539808e-05
32 0.0073384363 -0.01547237 -0.01013681 0.001974959 -0.018855479 0.019039972 -0.003110906 0.0033776313 0.023956584 0.011494776
33 0.00463211 -0.0123242615 0.010267736 -0.016236 -0.02441673 0.01271438 -0.017439995 0.01407508 0.005793711 -0.017504249
34 -0.008982385 -0.008172452 -0.008158892 0.019881258 -0.015732128 -0.010393194 -0.0011688415 0.0034566335 0.005279448 0.012782121
35 0.02400173 0.011475636 -0.015786923 -0.0059373286 -0.024636125 0.008949747 -0.002027724 -0.0075026397 -0.014375928 -0.015382603
36 0.019733688 -0.00813831 0.010775955 0.015043495 -0.00071711466 0.017224004 0.011391519 -0.0018521361 -0.020354062 0.01541687
37 0.0110949 0.020651313 0.004827628 0.0065243896 -0.01298213 0.01601666 -0.0037201159 -0.013856712 -0.0038651265 0.00810265
38 0.016744083 -0.021945624 -0.014450398 -0.0135192815 0.010301134 -0.018622655 0.010913255 -0.0028713532 -0.011219549 -0.012398836
39 -0.0005892329 -0.015639836 -0.0022613406 0.017816963 -0.0042618774 0.008800184 0.003901044 -0.0007337779 -0.00840042 -0.004984781
40 -0.012036473 -0.019979209 0.013311436 0.02224142 0.009934755 -0.011423863 0.01690668 0.0070331413 0.0005904883 0.016662387
41 0.024521412 0.023309743 0.0071644355 0.0048552454 0.010517539 -0.021931862 -0.010208914 0.003343219 0.005233627 0.0043444633
42 0.007115951 0.021967167 -0.019633418 -0.023153115 0.02019691 -0.0016209744 0.009371432 -0.015513825 -0.013605473 -0.02418132
43 -0.0006321315 0.0045976546 0.02117745 0.011906998 0.0010768734 0.017101305 -0.0047812816 -0.021848762 0.019363245 -0.024548162
44 0.023521619 -0.01684305 -0.016425684 0.00754291 -0.023926763 -0.023303553 -0.017085262 -0.023416433 0.016047047 0.008636193
45 -0.022856152 0.021308126 0.012581417 -0.019401416 0.009176871 0.022161921 -0.017024156 -0.007101873 0.0032717697 -0.012558261
46 -0.0012739357 -0.019472858 -0.0038785432 -0.020054236 -0.01176124 -0.011558378 -0.010495049 0.017029023 0.020702356 0.024501143
47 0.0031941347 -0.021893535 0.016655145 -0.013126967 0.019157445 0.017501371 0.009662824 -0.0071703345 0.022915518 0.017711068
48 0.02434011 -0.0137674725 0.008220514 -0.0064972397 0.014416179 0.0154908765 -0.012814206 0.0048415624 0.0066759717 -0.012481076
49 0.007079819 0.010313844 0.00451212 -0.00084542297 0.013083225 0.009360967 0.0024966206 0.006832393 0.008816736 -0.004047388
50 -0.0069118775 0.003949344 -0.020263324 -0.008725276 0.019334262 -0.017273834 0.024238745 0.02274655 0.0015586317 0.015421214
51 -0.024195952 -0.0019386169 0.005019214 0.014809074 0.016612498 -0.023736835 0.015794167 -0.02421686 -0.021108849 -0.005730236
52 0.0027881954 -0.02336196 0.020520331 -0.008571804 -0.0030668713 -0.004814949 0.0070866477 -0.012956435 -0.005413905 -0.0006364826
53 0.0023361202 -0.0221229 0.020696254 -0.005328063 0.007914884 -0.015393341 -0.01988306 -0.011101469 -0.007101465 0.019221859
54 0.019926088 -0.018248513 0.011158088 -0.023115186 0.019347714 0.0054340623 0.0048436727 -0.020764377 -0.024296736 0.018366056
55 0.015027827 -0.019360641 0.019100213 0.020742299 0.01966126 0.017003784 0.010395246 -0.012940225 0.017571377 -0.023591945
56 0.0047021955 -0.003750857 0.022301568 -0.012265491 -0.021237109 -0.011304867 -0.0008493699 -0.011067862 -0.0047830753 0.002388496
57 0.010513151 -0.0017883368 -0.012471429 0.013868352 -0.0008166637 -0.019189069 0.008945433 -0.014306733 0.015818538 -0.022697804
58 0.02315366 0.009958496 -0.008484293 0.008205218 0.010440769 0.015366705 0.019141676 -0.0034462065 -0.012858937 -0.002322141
59 -0.024087265 -0.022526903 -0.02211003 0.006864315 0.015509563 0.017003922 -0.014340499 0.013955193 -0.017833728 -0.01035834
60 -0.0096228635 -0.0030019525 0.0045830254 -4.12073e-05 0.019712107 0.018790009 -0.014940876 0.007806143 -0.018932277 -0.013026985
61 0.017377226 0.014961099 0.021307958 0.0062676053 0.023275537 -0.014527804 -0.011529229 0.002664473 0.019056557 -0.019352395
62 -0.01987435 0.014232637 0.018845903 0.023546236 -0.017856171 0.0006193761 0.0037123114 0.011559455 -0.022086373 -0.019868478
63 -0.020840678 -0.02487631 -0.017051425 0.002018433 0.022394517 -0.01122376 0.0021483507 0.010185273 -0.0019069407 0.014308041
64 -0.00915066 0.01146883 0.024455806 0.01705228 -0.020870063 0.005656829 -0.017674794 -0.017423263 0.0004607886 -0.014195583
65 -0.00733893 0.022226604 -0.00079572573 0.018961595 -0.015661115 -0.02269576 -0.010530255 -0.014731104 -0.015188396 -0.0023396276
66 -0.00837025 -0.006603131 -0.0216855 -0.012862399 0.0051676147 0.02468002 -0.012799079 -0.021179367 -0.022015909 -0.01352678
67 0.016000586 0.023922192 0.007599132 -0.023912916 0.013214471 0.003311932 0.02424627 -0.024733607 -0.012189574 0.017571615
68 -0.019662634 -0.0030763354 0.001641592 -0.018246707 -0.018023157 -0.011291179 -0.0053868983 0.0061910003 -0.01772805 -0.022686223
69 -0.016061228 0.013428235 -0.0018637571 0.010876289 0.017371377 0.009765277 -0.009996596 -0.02271472 -0.021538839 -0.014887664
70 -0.0103762215 0.012613719 -0.022048494 -0.0002822075 -0.013767215 0.010271581 0.005285928 0.008329479 0.009090198 -0.023357648
71 -0.012159619 -0.018819079 0.021194005 0.010137113 0.022574732 0.014179932 -0.020387152 0.0050123185 -0.015223301 -0.006392073
72 0.02135392 -0.018495712 0.02458355 0.0018661767 0.009248761 -0.024185542 0.0078100767 -0.007386824 -0.012203601 0.013385804
73 0.019011268 0.022836613 0.008460345 0.023731822 -0.015649373 -0.013594896 -0.005002629 0.020623567 -0.020986164 -0.0037828293
74 0.007198209 0.012354521 -0.02406067 0.010334691 -0.021071056 -0.011560581 0.021599235 -0.021799585 0.013456019 0.0072167907
75 -0.013266436 0.008817347 0.016883688 0.01047199 -0.021379152 -0.014648432 -0.021584172 -0.00049707294 0.02232614 0.0025202446
76 0.01349234 0.0047791507 0.019532515 -0.018988933 -0.024711994 -0.014370126 -0.024031168 -0.0071816295 -0.017537866 0.019902593
77 -0.014660192 0.019627186 0.005667856 -0.018675301 -0.002611423 -0.00029700622 0.013749333 -0.00070391595 0.019981103 0.004364431
78 -0.020117681 -0.0030312538 0.023148665 0.02015216 -0.0024340264 0.018840054 0.020699827 0.0009241216 -0.012649426 0.005544275
79 -0.008182619 0.007131802 -0.018615857 0.0075210836 0.006919237 -0.005586937 -0.001063982 0.023751283 0.0101895835 -0.002880957
80 -0.00126433 -0.018203203 -0.020327082 -0.00048238598 0.0233304 -0.009668899 -0.0100173745 0.0056600366 0.0111299995 -0.005447712
81 -0.0017142594 0.008742368 -0.0119755985 0.0016596522 0.0035053045 -0.024014656 -0.020259792 0.018783035 -0.0018043965 0.0065960605
82 0.021211458 -0.017466392 -0.020745596 -0.010304007 0.013560357 -0.010724765 0.0086314995 0.020531656 0.010179715 -0.021500671
83 0.0032744743 0.018586667 -0.019981766 0.013702771 -0.0065103434 0.0061556604 0.0030872617 0.005905926 -0.0050650574 0.003866654
84 0.0052990317 -0.014939613 -0.0041672885 0.021990126 -0.017644087 -0.014950666 -0.009215359 -0.018668313 0.015886856 -0.0042913165
85 -0.014459485 0.014258919 -0.002354052 -0.0073647313 -0.0015513934 -0.009212915 0.018259002 0.0190888 0.005531326 -0.0047720037
86 0.008739149 -0.006547291 0.01610695 -0.00064734183 -0.0017965846 -0.011547175 -0.010182333 0.010086836 0.0033270177 -0.009369265
87 -0.023819357 -0.012263387 -0.018281886 -0.008060519 -0.01420826 0.022768283 -0.017691946 -0.003607083 -0.020730752 -0.023830706
88 -0.01798456 -0.022639325 -0.010492879 0.010132914 -0.0008225292 0.00018861517 0.013129285 0.016557889 0.009202769 0.024766283
89 -0.007939968 0.017739134 0.0024512 0.024039978 0.0021343678 -0.0020247642 -0.016738292 -0.009543014 0.0067621116 0.0023756474
90 -0.023590758 0.024764447 0.008399548 0.011563374 -0.015083698 0.022165863 -0.02106323 0.0025975443 0.004718816 -0.022092406
91 -0.022503747 0.009180235 0.0048709847 -0.023936136 -0.0026662983 -0.014660028 -0.003204625 -0.018287992 0.007303307 -0.017885085
92 0.0070531573 0.008704642 -0.0045390017 0.007846998 -0.020483231 -0.0038622376 0.01859598 -0.016952837 0.013804572 0.019714775
93 -0.0031263027 0.0024462398 0.008628743 -0.016032774 0.015639862 0.016176173 0.024754042 0.020947257 -0.015846241 0.020358207
94 -0.010867814 -0.020544758 0.008546105 0.012369467 -0.0027647857 0.0022989959 -0.015453708 0.020952104 -0.019125754 -0.0068402383
95 -0.0035686642 -0.017037828 0.018090798 0.0022519585 0.01412149 0.004193131 -0.007489886 0.018719258 -0.005185878 0.0033277776
96 -0.010012114 -0.00092106126 0.0101788845 0.02486865 0.016159074 -0.0033710096 0.013980566 0.0053812917 0.0032708552 0.0041551944
97 -0.01752004 0.0005222112 0.011367565 -0.007880416 -0.016037833 -0.02074897 -0.0038430989 -0.024825966 0.011825407 0.024528554
98 0.01933421 -0.0039338954 0.018052997 0.0051941127 -0.003885705 0.018853957 -0.010393477 0.0057800952 -0.017721673 -0.012613863
99 -0.0066694207 -0.0060895737 0.017435601 -0.0047917403 -0.02249077 0.013407474 -0.008113524 0.022367807 -0.00854901 0.01963806
